{
 "network": [
  {
   "neurons": [
    {
     "weights": [
      -0.9674438127881015,
      -0.7863691400631994,
      -0.16177971878589892,
      -0.7832222502321948,
      -0.5423106140463458,
      0.0179493757610123,
      0.43753494655068437,
      -0.3164562282794918,
      -0.14590328085972848,
      -0.08293476642957431,
      0.3372528826681216,
      -0.2926933472138642,
      0.5005812538381056,
      0.38053112603124317,
      -0.049277999681423434,
      -0.950887500129947,
      0.39996507476092447,
      -0.5234799831543038,
      -0.17741843872016494,
      0.19765231996067145,
      0.29408013494830554,
      -0.08185090968911135,
      0.8344164096546072,
      0.22997740670105138,
      0.32823633436602906,
      -0.6144872606220666,
      0.4655210800394083,
      0.5611222354651573,
      -0.853466751689766,
      0.2485112284365374,
      0.5164706139866544,
      -0.6375992213967021,
      -0.6246057488470607,
      -0.04434024566036232,
      0.07286471389406879,
      -0.628473547261291,
      -0.14397135872053957,
      -0.5713469895443479,
      -0.6135422833676332,
      -0.7725417685118141,
      -0.8139431825805854,
      -0.005540240832555554,
      -0.9485739729415359,
      0.870362645641392,
      -0.24821004162089677,
      -0.15306377322962073,
      0.5575962601250808,
      0.01684960993015272,
      -0.9334381155821947,
      0.7143363254209532,
      0.3336315366983196,
      -0.4639407845439729,
      0.2469603884870457,
      -0.7544266597779075,
      -0.28872957118229126,
      -0.8259766420490662,
      0.435670131849478,
      -0.48218527053659743,
      -0.9402505110320147,
      -0.6955662614674969,
      0.8462974289668161,
      0.8146208830955763,
      0.956623733210828,
      -0.9688245838091554,
      -0.07910784278740879,
      -0.8385845705007822,
      0.24308753073810374,
      0.33368590947422705,
      0.9524164011329836,
      0.953952376180736,
      0.7629008545064808,
      -0.07323082069258202,
      -0.610715536604816,
      -0.4181332998581939,
      -0.22025041318425975,
      0.8705065438674806,
      -0.084342498164244,
      0.07778114616385068
     ],
     "bias": -0.059865151396665706,
     "lastInputs": [
      0,
      0,
      0,
      0,
      0,
      0,
      0,
      0,
      0,
      0,
      0,
      0,
      0,
      0,
      0,
      0,
      0,
      0,
      0,
      0,
      0,
      0,
      0,
      0,
      0,
      0,
      0,
      0,
      0,
      0,
      0,
      0,
      0,
      0,
      0,
      0,
      0,
      0,
      0,
      0,
      0,
      0,
      0,
      0,
      0,
      0,
      0,
      0,
      0,
      0,
      0,
      0,
      0,
      0,
      0,
      0,
      0,
      0,
      0,
      0,
      0,
      0,
      0,
      0,
      0,
      0,
      0,
      0,
      0,
      0,
      0,
      0,
      0,
      0,
      0,
      0,
      0,
      0
     ],
     "lastOutputs": 0.4850381802767409,
     "error": -0.07991338115950239,
     "adjust": -0.01996045619607253
    },
    {
     "weights": [
      0.5724983450102821,
      0.279363177808972,
      -0.5931107168515144,
      -0.27332266201001465,
      0.6687802210436944,
      -0.6302715016425475,
      -0.9582929169803949,
      0.7244620373169912,
      0.7837865192946594,
      0.7943453547595496,
      0.14394598072278875,
      0.3628036905398089,
      -0.0933395542314428,
      0.29024031981217524,
      0.841182891089689,
      -0.2802578146369772,
      -0.04617930357305111,
      -0.7217900665987398,
      -0.9866596676281669,
      -0.7175164772317402,
      -0.6566846439326572,
      -0.46002907830388695,
      0.5642368353966458,
      -0.26267287595531474,
      0.9548072501999574,
      -0.7869905279575078,
      -0.7961657142409115,
      0.5187948372409932,
      0.6760903212766269,
      -0.8829853511458707,
      0.8141013790063671,
      -0.904682234716808,
      -0.5313163603771986,
      -0.16579240811883533,
      -0.5048947215372115,
      -0.09107377926116422,
      0.8745277503765636,
      0.3471311781134543,
      0.15564753798116326,
      -0.8202206580131843,
      -0.6033926734954536,
      -0.9568078621082319,
      0.3524524753596441,
      0.12040638025161376,
      -0.7176420095772031,
      0.05419015386997028,
      0.9400493804286336,
      0.3250846208134863,
      0.21269724294749315,
      0.14459863417484797,
      0.11430112333900588,
      0.09078706634371958,
      0.8832304340060566,
      -0.6030988556452739,
      -0.6912191904898819,
      -0.4594222493987252,
      -0.675215717249467,
      0.024591352173870096,
      -0.5950071472384524,
      0.2084489062655468,
      -0.07431672683364177,
      0.42394354566261017,
      0.06934149315325833,
      -0.8414645785672183,
      -0.13109300680258418,
      0.6889421726243512,
      -0.12482260937667977,
      -0.8832520487839672,
      0.6603460171754905,
      -0.20910921586358322,
      -0.7648493076507323,
      0.5632856069309686,
      -0.2453041535132514,
      -0.038928658163761565,
      -0.8776290160456699,
      -0.7818459232599966,
      -0.754455311581463,
      -0.6738198011070513
     ],
     "bias": 0.6732909140288044,
     "lastInputs": [
      0,
      0,
      0,
      0,
      0,
      0,
      0,
      0,
      0,
      0,
      0,
      0,
      0,
      0,
      0,
      0,
      0,
      0,
      0,
      0,
      0,
      0,
      0,
      0,
      0,
      0,
      0,
      0,
      0,
      0,
      0,
      0,
      0,
      0,
      0,
      0,
      0,
      0,
      0,
      0,
      0,
      0,
      0,
      0,
      0,
      0,
      0,
      0,
      0,
      0,
      0,
      0,
      0,
      0,
      0,
      0,
      0,
      0,
      0,
      0,
      0,
      0,
      0,
      0,
      0,
      0,
      0,
      0,
      0,
      0,
      0,
      0,
      0,
      0,
      0,
      0,
      0,
      0
     ],
     "lastOutputs": 0.6622396578010147,
     "error": 0.03976912261989953,
     "adjust": 0.008895489479090399
    },
    {
     "weights": [
      -0.20421380871114625,
      0.18688488355130461,
      0.03632558401590735,
      -0.9634790686174308,
      0.050213328053100525,
      -0.9917930332775873,
      -0.9931315066610567,
      0.3903878578821933,
      -0.3472682451673932,
      0.2396478682863621,
      -0.7361999965861092,
      -0.679675201592393,
      0.5187092343362285,
      -0.17044694412402395,
      -0.3492959931652253,
      0.35137552280558815,
      0.6863497523269011,
      0.33158862872831074,
      0.9882939090735539,
      0.4148856655756039,
      0.45775415223870386,
      0.48047324023900906,
      -0.6439468045547336,
      -0.3112581471419098,
      0.6513201365514432,
      -0.498356434617778,
      -0.21012996482448187,
      0.2720975238007459,
      -0.05292392883200758,
      0.9233263587280671,
      -0.9452284454033122,
      -0.17230447849193808,
      -0.8161457867863264,
      0.07521531274415283,
      -0.7098786280019609,
      0.28278161462229745,
      0.7860415972196244,
      0.8843112466913534,
      0.5811069636175219,
      -0.7342922349803351,
      0.294397046454526,
      0.9556604734980358,
      0.3473807808267404,
      -0.40319412473340455,
      0.7393735048401742,
      -0.32040906932942725,
      0.2383437518409437,
      -0.45982026752589666,
      -0.36717968660071865,
      0.23416890163795223,
      -0.6858263292855957,
      0.6388745900239869,
      -0.989966234675737,
      0.824057879513139,
      0.3292368067830167,
      0.4166643697582266,
      -0.48847095183555833,
      0.9672540532552327,
      0.967677055005201,
      -0.4662950624757678,
      0.06324917539183161,
      -0.20955731968784086,
      -0.4411657057370255,
      -0.2603057595451408,
      -0.32318561902948106,
      -0.03500735782930953,
      -0.44217589216620246,
      0.7795762920036391,
      0.06359646928828155,
      0.17228200531305937,
      0.588037549219206,
      0.5002480667867526,
      0.7758876264247707,
      0.9680287607157125,
      0.140086312979538,
      -0.947462691374096,
      0.4595627225043475,
      -0.9991833360753177
     ],
     "bias": 0.004689883121931526,
     "lastInputs": [
      0,
      0,
      0,
      0,
      0,
      0,
      0,
      0,
      0,
      0,
      0,
      0,
      0,
      0,
      0,
      0,
      0,
      0,
      0,
      0,
      0,
      0,
      0,
      0,
      0,
      0,
      0,
      0,
      0,
      0,
      0,
      0,
      0,
      0,
      0,
      0,
      0,
      0,
      0,
      0,
      0,
      0,
      0,
      0,
      0,
      0,
      0,
      0,
      0,
      0,
      0,
      0,
      0,
      0,
      0,
      0,
      0,
      0,
      0,
      0,
      0,
      0,
      0,
      0,
      0,
      0,
      0,
      0,
      0,
      0,
      0,
      0,
      0,
      0,
      0,
      0,
      0,
      0
     ],
     "lastOutputs": 0.501172468631446,
     "error": -0.012801784913425186,
     "adjust": -0.003200428629964153
    },
    {
     "weights": [
      -0.17784926710013194,
      0.35730931827793055,
      0.6414238111466517,
      0.8362229399798808,
      0.7050018906712605,
      0.8881013401670783,
      -0.039690166376104674,
      -0.6877135334194198,
      0.01813807199852535,
      0.5993872688415482,
      -0.14804906260654072,
      -0.2008639178293632,
      0.47819172891797335,
      -0.6642364051393352,
      0.006806983446736137,
      -0.06120684743755689,
      -0.7970423951477046,
      0.2945509015514922,
      -0.544474999768243,
      0.27858734872617097,
      -0.2789080618806987,
      -0.6620782772708207,
      0.38214275146041077,
      0.6127400898159521,
      0.33948575618918975,
      -0.23548325492459066,
      0.4101746037712912,
      -0.931927967224452,
      -0.9758152525483079,
      -0.09613978421079672,
      -0.5602506838764167,
      -0.3002485133752839,
      -0.8207490284162153,
      0.09507830250137594,
      -0.1001904018189892,
      -0.46872239391684056,
      -0.7700204335790533,
      0.056053207404848315,
      0.2921061134664278,
      -0.14296068904566317,
      -0.5483020179483882,
      0.14762514390780845,
      -0.46592094092423775,
      -0.955491256902198,
      -0.45470893280872593,
      -0.34721101721728376,
      -0.5058712531045937,
      -0.5777933035302847,
      -0.5340161988019956,
      -0.8175320473502046,
      -0.8839666944389619,
      -0.4185495798838441,
      -0.9624972847786397,
      0.3399691754301788,
      0.3063273421232475,
      0.6128967802742036,
      0.5372551710496278,
      -0.5615074120254002,
      0.7783969504102508,
      -0.8617629107886926,
      0.0681935248897898,
      -0.6995509409268954,
      -0.2553613796381895,
      -0.47978562700895244,
      -0.9148282171549464,
      -0.8660692504084784,
      0.6081187338860996,
      0.027450763245589815,
      0.8079433947439476,
      -0.35405660794529004,
      0.5070456074628016,
      0.2787895927278474,
      -0.8609117979663137,
      0.3117674713780314,
      -0.9404762503514252,
      0.23685140047698283,
      0.20602321049821715,
      -0.004975197245088214
     ],
     "bias": -0.033146043827295024,
     "lastInputs": [
      0,
      0,
      0,
      0,
      0,
      0,
      0,
      0,
      0,
      0,
      0,
      0,
      0,
      0,
      0,
      0,
      0,
      0,
      0,
      0,
      0,
      0,
      0,
      0,
      0,
      0,
      0,
      0,
      0,
      0,
      0,
      0,
      0,
      0,
      0,
      0,
      0,
      0,
      0,
      0,
      0,
      0,
      0,
      0,
      0,
      0,
      0,
      0,
      0,
      0,
      0,
      0,
      0,
      0,
      0,
      0,
      0,
      0,
      0,
      0,
      0,
      0,
      0,
      0,
      0,
      0,
      0,
      0,
      0,
      0,
      0,
      0,
      0,
      0,
      0,
      0,
      0,
      0
     ],
     "lastOutputs": 0.4917142476314968,
     "error": -0.09973779552914619,
     "adjust": -0.024927601514360395
    },
    {
     "weights": [
      -0.6759870192758157,
      0.5927784977419903,
      -0.8252986501742647,
      -0.8892976583647698,
      -0.0515562277855941,
      0.18004650738179562,
      -0.14258993570933898,
      -0.007204657328509612,
      0.8140490389938226,
      0.8346380056803859,
      0.46498686844172354,
      -0.6907292231925073,
      -0.4929786102487377,
      -0.9653208117915528,
      0.618347385116075,
      -0.26871977772967703,
      0.7957223541185692,
      -0.5187577451777967,
      0.47665825927696437,
      -0.1852080452626832,
      0.3571867941920308,
      0.2356606216133983,
      0.6584550980284858,
      0.16508874463748802,
      0.3840818263737895,
      0.8702869538471116,
      -0.11707027111740276,
      -0.21264192949964356,
      0.35933679005348695,
      -0.12142774282544133,
      -0.034632288367892006,
      0.7334138952836073,
      -0.4824860414958665,
      -0.4626164766504193,
      -0.9060490037565185,
      -0.25641450904906105,
      0.31728133039440687,
      0.12953728509870732,
      -0.7053878831856792,
      0.5674882660566944,
      -0.21760147594688117,
      -0.3212439489583958,
      0.5219421228877601,
      0.5602827365234155,
      -0.0036584187964527892,
      -0.29896870507110807,
      0.8693764073118233,
      0.6602651431792106,
      -0.7654942925203629,
      -0.290754809270819,
      0.7198847777626614,
      -0.22536519046872128,
      -0.9407156677641817,
      0.9116696559973603,
      -0.07880627639072957,
      -0.6562873926760378,
      0.37522812628500635,
      0.4004261183025597,
      0.5086697894013783,
      0.46597523640343486,
      -0.7103482889007462,
      0.14969522316451833,
      0.3517769007756866,
      -0.9612602757199444,
      0.5522424144242835,
      0.19106831337017782,
      0.7866504091416715,
      -0.011752546908723627,
      -0.505838306674943,
      -0.3000372854486333,
      -0.3423792485009529,
      -0.15255845682531,
      0.23554722290704877,
      -0.12354378976219671,
      0.3847551659449686,
      0.9732367357762248,
      -0.7925009335291606,
      0.07773364817775219
     ],
     "bias": 0.22545247152151315,
     "lastInputs": [
      0,
      0,
      0,
      0,
      0,
      0,
      0,
      0,
      0,
      0,
      0,
      0,
      0,
      0,
      0,
      0,
      0,
      0,
      0,
      0,
      0,
      0,
      0,
      0,
      0,
      0,
      0,
      0,
      0,
      0,
      0,
      0,
      0,
      0,
      0,
      0,
      0,
      0,
      0,
      0,
      0,
      0,
      0,
      0,
      0,
      0,
      0,
      0,
      0,
      0,
      0,
      0,
      0,
      0,
      0,
      0,
      0,
      0,
      0,
      0,
      0,
      0,
      0,
      0,
      0,
      0,
      0,
      0,
      0,
      0,
      0,
      0,
      0,
      0,
      0,
      0,
      0,
      0
     ],
     "lastOutputs": 0.5561255859375002,
     "error": -0.12124677960663366,
     "adjust": -0.02992975767679429
    },
    {
     "weights": [
      -0.8990638236583512,
      0.416550570526534,
      -0.21654551665631905,
      -0.040848325826786436,
      -0.7047634289288727,
      0.9347954523545865,
      0.020364361309692658,
      0.8479394015374306,
      0.6224559617376513,
      -0.7933736635899598,
      0.9548594500901828,
      0.6062624557940106,
      -0.23798857975341692,
      0.8046768706579139,
      -0.8058987693835418,
      0.7035084988692843,
      -0.07719332941253532,
      -0.24032824940963327,
      -0.9281320255672716,
      -0.16599434581301686,
      0.6393800533234297,
      -0.051181125895102486,
      -0.2157549058511834,
      0.34992283739397134,
      -0.772535932656492,
      -0.8845094124970707,
      -0.5619218937489738,
      -0.5027802054484276,
      -0.8452444211288594,
      -0.4452933191377064,
      0.6882005718395714,
      -0.5663265223639242,
      0.732316613464365,
      0.12793560980810526,
      -0.3284145277811188,
      0.8750086281632994,
      -0.7354642251266754,
      0.3997226994228167,
      0.6150706426161023,
      -0.6845291973699754,
      0.7260481039302791,
      0.2766177844363855,
      0.1922108730174803,
      -0.6484827441866243,
      -0.15653947525016276,
      0.30926260925181337,
      0.23667821131600153,
      -0.1582318975999546,
      0.6809732785836387,
      0.15348444351159696,
      -0.9439440264547057,
      0.6668476246122865,
      0.9869721386234214,
      0.4249278209594056,
      -0.1686041685918882,
      0.9166471372030442,
      0.6392439678955837,
      0.7529535226764152,
      -0.8216140372177101,
      -0.07557732578392651,
      0.373033233438377,
      0.7276159785153045,
      0.8688874836747766,
      -0.683502950010368,
      -0.22974296731887645,
      -0.6348519458247108,
      0.911233714479772,
      -0.08130784884194808,
      -0.1891193181224895,
      0.35146265600683746,
      -0.08898373010217497,
      -0.23708690422356726,
      -0.5670420602060995,
      -0.5004061593761566,
      -0.4066955477526255,
      -0.771442159635435,
      -0.5483254026062503,
      0.945237666332932
     ],
     "bias": 0.2106395054439396,
     "lastInputs": [
      0,
      0,
      0,
      0,
      0,
      0,
      0,
      0,
      0,
      0,
      0,
      0,
      0,
      0,
      0,
      0,
      0,
      0,
      0,
      0,
      0,
      0,
      0,
      0,
      0,
      0,
      0,
      0,
      0,
      0,
      0,
      0,
      0,
      0,
      0,
      0,
      0,
      0,
      0,
      0,
      0,
      0,
      0,
      0,
      0,
      0,
      0,
      0,
      0,
      0,
      0,
      0,
      0,
      0,
      0,
      0,
      0,
      0,
      0,
      0,
      0,
      0,
      0,
      0,
      0,
      0,
      0,
      0,
      0,
      0,
      0,
      0,
      0,
      0,
      0,
      0,
      0,
      0
     ],
     "lastOutputs": 0.5524660308785999,
     "error": 0.0810960984505968,
     "adjust": 0.020050792647855257
    },
    {
     "weights": [
      0.5406683292479024,
      0.549188165795528,
      0.815470197684224,
      0.9547555719062122,
      0.5112531946636003,
      0.12200157721370486,
      -0.44585310805391787,
      -0.6089576536629697,
      -0.8154589651739186,
      -0.7902392806118699,
      -0.07832490278912818,
      -0.012592578898840578,
      0.746915139916533,
      -0.26535916460200104,
      0.6085783697007794,
      0.646869332590549,
      0.2151154333555132,
      -0.8226323610989277,
      -0.4314615014513761,
      -0.4891545663902477,
      -0.8182992060795096,
      0.7562913719504865,
      0.27272888012282603,
      0.6332539802555601,
      -0.4261574081994355,
      -0.7314496514567641,
      0.1952647608990481,
      0.2579565414650671,
      0.3898600562766932,
      0.458180836210055,
      0.9358484895478769,
      -0.2904153115782204,
      0.6490227144887659,
      -0.17116738458643388,
      -0.29151505919759435,
      0.9605560808846234,
      -0.15337820367770405,
      0.4803685662871957,
      0.9474622803173425,
      0.49809897165632533,
      0.2649321811593097,
      -0.15875371355335366,
      -0.4530345172571639,
      0.8762738919443187,
      0.8815139743788687,
      -0.5509222090670338,
      -0.9730434783691555,
      0.5773956766773907,
      -0.06806283142673175,
      -0.20847124909293901,
      -0.6892632046075824,
      -0.5112293977332851,
      0.12129724700854627,
      0.3612293686715784,
      -0.48343306163619904,
      -0.8228238874027283,
      -0.8690395168792784,
      -0.08431398902978549,
      -0.8237612979917079,
      0.6736898377441753,
      -0.10299933137547646,
      -0.1504381125405505,
      -0.5270549716477921,
      0.07335097352614639,
      0.4965568655398598,
      -0.7771887577846788,
      -0.7179525456363423,
      0.16900317415751065,
      0.22423102171640696,
      -0.26025812533761483,
      -0.2598719388398756,
      0.7730076009777558,
      -0.1594410255327161,
      0.6483370705819893,
      -0.1811275448147116,
      -0.38171035173259504,
      0.9775684019262147,
      0.8849515317969057
     ],
     "bias": 0.7429027386110643,
     "lastInputs": [
      0,
      0,
      0,
      0,
      0,
      0,
      0,
      0,
      0,
      0,
      0,
      0,
      0,
      0,
      0,
      0,
      0,
      0,
      0,
      0,
      0,
      0,
      0,
      0,
      0,
      0,
      0,
      0,
      0,
      0,
      0,
      0,
      0,
      0,
      0,
      0,
      0,
      0,
      0,
      0,
      0,
      0,
      0,
      0,
      0,
      0,
      0,
      0,
      0,
      0,
      0,
      0,
      0,
      0,
      0,
      0,
      0,
      0,
      0,
      0,
      0,
      0,
      0,
      0,
      0,
      0,
      0,
      0,
      0,
      0,
      0,
      0,
      0,
      0,
      0,
      0,
      0,
      0
     ],
     "lastOutputs": 0.677630278856806,
     "error": -0.05103824335484548,
     "adjust": -0.011149175850342906
    },
    {
     "weights": [
      -0.28764264313529386,
      0.789021096783801,
      -0.24981931471318086,
      -0.7623500636016445,
      0.49554514206927136,
      0.7081675865900197,
      -0.7631192074837472,
      -0.13974259289536706,
      -0.48206497767871204,
      0.4547080052519177,
      0.023455844071614607,
      0.1127174492330294,
      0.14259757610225599,
      0.15046990813386962,
      0.823513768890741,
      0.6252173133503187,
      0.17016377208139577,
      0.5703687613015935,
      -0.8248747284257325,
      0.4008592647628575,
      -0.2311496243864788,
      -0.8265573181992281,
      0.8375732246026861,
      -0.7941108395798655,
      0.1546204950186172,
      0.2959338908149709,
      0.6026676322953732,
      -0.24389525230234188,
      0.27633051800903674,
      -0.10668139042798686,
      0.9746243593811426,
      0.783604284772335,
      0.9053425687236776,
      0.40932885194717583,
      -0.776700275563603,
      0.5711586208322861,
      0.20617960624604814,
      -0.125327903074965,
      0.972661074026016,
      -0.500826514286417,
      0.24354747847728353,
      0.4598353913800137,
      0.451560115343292,
      -0.5754563258957712,
      0.623466296521209,
      -0.8085190040889101,
      -0.9059695567185417,
      -0.33754334046489465,
      0.4953633313383423,
      0.7291170489331611,
      -0.6872574775138971,
      -0.460897395626386,
      0.4029783966287295,
      -0.2885868638507625,
      -0.9146563178368914,
      0.38967036776075403,
      0.7385438162933649,
      -0.3981988122343867,
      0.7115423885637404,
      0.48896961921595583,
      -0.8203353122311094,
      0.6815835222199662,
      0.4481997487827014,
      0.9203681794133449,
      0.5353671407407208,
      0.6844494282324978,
      0.24667321731682357,
      0.32964736064075817,
      0.9666803833099125,
      -0.9512369069959457,
      0.5425355987322198,
      -0.13351590382012635,
      0.33222484672418595,
      -0.7452495009966906,
      -0.7802048633262197,
      -0.9302754451260316,
      -0.05149902552702068,
      -0.6842817161344339
     ],
     "bias": -0.9148370102209991,
     "lastInputs": [
      0,
      0,
      0,
      0,
      0,
      0,
      0,
      0,
      0,
      0,
      0,
      0,
      0,
      0,
      0,
      0,
      0,
      0,
      0,
      0,
      0,
      0,
      0,
      0,
      0,
      0,
      0,
      0,
      0,
      0,
      0,
      0,
      0,
      0,
      0,
      0,
      0,
      0,
      0,
      0,
      0,
      0,
      0,
      0,
      0,
      0,
      0,
      0,
      0,
      0,
      0,
      0,
      0,
      0,
      0,
      0,
      0,
      0,
      0,
      0,
      0,
      0,
      0,
      0,
      0,
      0,
      0,
      0,
      0,
      0,
      0,
      0,
      0,
      0,
      0,
      0,
      0,
      0
     ],
     "lastOutputs": 0.28601105599786114,
     "error": -0.12073819701012212,
     "adjust": -0.024655794096670635
    },
    {
     "weights": [
      0.6557052276519739,
      0.9363213011719185,
      0.4360109428139438,
      0.17466752654480144,
      -0.516642003785269,
      -0.8342250834217206,
      -0.4205273526909181,
      0.7096174065577783,
      0.06776737227239016,
      -0.19436640251373571,
      -0.9108295016537102,
      0.6369788531845693,
      0.40895169194193803,
      -0.20990073430258116,
      0.02392094132961864,
      0.8591483054513875,
      0.9125052572855896,
      -0.527357893153396,
      -0.5284311858685276,
      -0.6627394811891154,
      0.9642584361176816,
      -0.3229678769402011,
      -0.40490056303395017,
      -0.022715934770997315,
      -0.5201685610559279,
      -0.9163372119843372,
      0.8925415513897428,
      -0.737156930904693,
      0.0006409677173695449,
      -0.7559835321009452,
      -0.803905359068942,
      0.4451316018065401,
      -0.8725404579584302,
      -0.0396836431980252,
      0.17419453949291697,
      -0.3761551136106194,
      0.7082286387874293,
      -0.7125566857388237,
      0.6774770178350265,
      -0.5334835816719519,
      0.5426990090035657,
      -0.8700009754443863,
      -0.6215433788876257,
      -0.061634589487266744,
      -0.09130760149304606,
      0.5499903496775409,
      -0.8243637687649299,
      -0.4724331048622199,
      -0.3453597163352691,
      0.55899827188906,
      -0.4765849882634634,
      -0.7783334126025774,
      -0.9670612667810592,
      0.06311115910621945,
      -0.31822986865041125,
      -0.9643954922513078,
      -0.40756168658510905,
      -0.6081187624720314,
      0.08129248289884039,
      0.7429150349815914,
      -0.42973209129341106,
      0.4072067829061843,
      0.8920670766374603,
      0.8284615085735751,
      0.42248278502862835,
      0.5677056244849812,
      -0.889689203933024,
      0.13398857511497875,
      -0.4910091751747343,
      -0.8004161279496884,
      -0.24200858244048717,
      -0.5241286808366601,
      -0.46229563275341734,
      -0.37067671104860267,
      -0.36452219450625734,
      -0.5372564546498331,
      -0.5973333804220453,
      0.5609130438088177
     ],
     "bias": 0.5303772248706973,
     "lastInputs": [
      0,
      0,
      0,
      0,
      0,
      0,
      0,
      0,
      0,
      0,
      0,
      0,
      0,
      0,
      0,
      0,
      0,
      0,
      0,
      0,
      0,
      0,
      0,
      0,
      0,
      0,
      0,
      0,
      0,
      0,
      0,
      0,
      0,
      0,
      0,
      0,
      0,
      0,
      0,
      0,
      0,
      0,
      0,
      0,
      0,
      0,
      0,
      0,
      0,
      0,
      0,
      0,
      0,
      0,
      0,
      0,
      0,
      0,
      0,
      0,
      0,
      0,
      0,
      0,
      0,
      0,
      0,
      0,
      0,
      0,
      0,
      0,
      0,
      0,
      0,
      0,
      0,
      0
     ],
     "lastOutputs": 0.6295710893813214,
     "error": 0.0805297405488851,
     "adjust": 0.018780448123164872
    },
    {
     "weights": [
      -0.14671551670433436,
      -0.12397022316198036,
      -0.7237351867568771,
      0.028616119264171402,
      -0.16550066143029696,
      0.3758189013841591,
      0.31897398494340923,
      -0.7566525847106913,
      0.7102863497680008,
      0.663625052432713,
      0.014656684645238283,
      -0.25519005574837905,
      0.05359378114197799,
      -0.6480798958491296,
      0.5539759655649679,
      0.7783573313874128,
      -0.44495223779720217,
      -0.8562918138418758,
      -0.20245924973734963,
      -0.2630527186201692,
      0.7032408340996175,
      0.584493264024391,
      -0.6515494020279373,
      0.012330857846251764,
      0.5580138094362472,
      0.014562904036235835,
      0.7226805409180246,
      -0.7739154652319011,
      0.4784194224069771,
      -0.3905625839406106,
      -0.36905628789440925,
      -0.7071594985503142,
      -0.9168947445955924,
      0.5376186783371151,
      0.5932834919801788,
      0.6575493339750107,
      0.9130141853908924,
      0.18008243010480074,
      -0.3604358271977839,
      -0.7160483661265422,
      -0.06468388321539464,
      0.9773476964792787,
      -0.3541643552938192,
      -0.20752833570025153,
      -0.7657780567314143,
      0.8638809380540788,
      -0.28138850367495705,
      0.6585157776350705,
      -0.14010382395364962,
      -0.07151147769281296,
      0.12417901333806958,
      0.32304008282593344,
      0.6000721945547154,
      -0.8701115074926138,
      0.19926208526186295,
      -0.8109234453387049,
      -0.23939576716097033,
      0.8289290953433563,
      0.9064112692959565,
      -0.8397137834496591,
      -0.42688680284583835,
      -0.8351095643239703,
      0.0057416128143130685,
      0.9290276653969798,
      0.8658076434225435,
      0.8651387444652303,
      0.6234558374220551,
      0.5428910564244549,
      0.8290181269220969,
      0.8713102759193276,
      -0.9607846739020234,
      0.6479776495124399,
      -0.6499556569107794,
      -0.9919654185290301,
      -0.10220494841886385,
      0.6191030455774547,
      -0.5691955918807396,
      -0.6210380170510454
     ],
     "bias": -0.5455712729715341,
     "lastInputs": [
      0,
      0,
      0,
      0,
      0,
      0,
      0,
      0,
      0,
      0,
      0,
      0,
      0,
      0,
      0,
      0,
      0,
      0,
      0,
      0,
      0,
      0,
      0,
      0,
      0,
      0,
      0,
      0,
      0,
      0,
      0,
      0,
      0,
      0,
      0,
      0,
      0,
      0,
      0,
      0,
      0,
      0,
      0,
      0,
      0,
      0,
      0,
      0,
      0,
      0,
      0,
      0,
      0,
      0,
      0,
      0,
      0,
      0,
      0,
      0,
      0,
      0,
      0,
      0,
      0,
      0,
      0,
      0,
      0,
      0,
      0,
      0,
      0,
      0,
      0,
      0,
      0,
      0
     ],
     "lastOutputs": 0.36689251657637517,
     "error": 0.10565624482446077,
     "adjust": 0.02454208589635284
    }
   ]
  },
  {
   "neurons": [
    {
     "weights": [
      -9.692473940871938,
      -10.301762471717822,
      3.610264099055647,
      2.151864662555269,
      -0.15806507491989133,
      -2.1561166864357073,
      3.4037229861485994,
      -13.298773847725876,
      7.868244740338836,
      13.629882783192834,
      null,
      null,
      null,
      null,
      null,
      null,
      null,
      null,
      null,
      null,
      null,
      null,
      null,
      null,
      null,
      null,
      null,
      null,
      null,
      null,
      null,
      null,
      null,
      null,
      null,
      null,
      null,
      null,
      null,
      null,
      null,
      null,
      null,
      null,
      null,
      null,
      null,
      null,
      null,
      null,
      null,
      null,
      null,
      null,
      null,
      null,
      null,
      null,
      null,
      null,
      null,
      null,
      null,
      null,
      null,
      null,
      null,
      null,
      null,
      null,
      null,
      null,
      null,
      null,
      null,
      null,
      null,
      null
     ],
     "bias": 6.833640689020044,
     "lastInputs": [
      0.4850381802767409,
      0.6622396578010147,
      0.501172468631446,
      0.4917142476314968,
      0.5561255859375002,
      0.5524660308785999,
      0.677630278856806,
      0.28601105599786114,
      0.6295710893813214,
      0.36689251657637517
     ],
     "lastOutputs": 0.9949703809970611,
     "error": 0.7093307259807802,
     "adjust": 0.003549719311637809
    },
    {
     "weights": [
      3.844950220665951,
      9.581894145275779,
      32.244903764775245,
      -38.50106478280006,
      -8.757503614590753,
      16.273368873137724,
      -24.99017920943951,
      25.07597396608722,
      -14.544487467015237,
      -2.3892581657404666,
      null,
      null,
      null,
      null,
      null,
      null,
      null,
      null,
      null,
      null,
      null,
      null,
      null,
      null,
      null,
      null,
      null,
      null,
      null,
      null,
      null,
      null,
      null,
      null,
      null,
      null,
      null,
      null,
      null,
      null,
      null,
      null,
      null,
      null,
      null,
      null,
      null,
      null,
      null,
      null,
      null,
      null,
      null,
      null,
      null,
      null,
      null,
      null,
      null,
      null,
      null,
      null,
      null,
      null,
      null,
      null,
      null,
      null,
      null,
      null,
      null,
      null,
      null,
      null,
      null,
      null,
      null,
      null
     ],
     "bias": 0.16142636420417306,
     "lastInputs": [
      0.4850381802767409,
      0.6622396578010147,
      0.501172468631446,
      0.4917142476314968,
      0.5561255859375002,
      0.5524660308785999,
      0.677630278856806,
      0.28601105599786114,
      0.6295710893813214,
      0.36689251657637517
     ],
     "lastOutputs": 0.00004209680511405158,
     "error": 1.038779487863127,
     "adjust": 0.00004372745679332711
    },
    {
     "weights": [
      -15.824151641067527,
      23.678661602830537,
      -2.9974983850560575,
      -35.42820147460398,
      -17.767985928679103,
      22.260257346213372,
      -16.996534741354125,
      -13.283698396841977,
      4.652063007960612,
      11.704613944046475,
      null,
      null,
      null,
      null,
      null,
      null,
      null,
      null,
      null,
      null,
      null,
      null,
      null,
      null,
      null,
      null,
      null,
      null,
      null,
      null,
      null,
      null,
      null,
      null,
      null,
      null,
      null,
      null,
      null,
      null,
      null,
      null,
      null,
      null,
      null,
      null,
      null,
      null,
      null,
      null,
      null,
      null,
      null,
      null,
      null,
      null,
      null,
      null,
      null,
      null,
      null,
      null,
      null,
      null,
      null,
      null,
      null,
      null,
      null,
      null,
      null,
      null,
      null,
      null,
      null,
      null,
      null,
      null
     ],
     "bias": 22.339384890219733,
     "lastInputs": [
      0.4850381802767409,
      0.6622396578010147,
      0.501172468631446,
      0.4917142476314968,
      0.5561255859375002,
      0.5524660308785999,
      0.677630278856806,
      0.28601105599786114,
      0.6295710893813214,
      0.36689251657637517
     ],
     "lastOutputs": 0.9965272270330469,
     "error": 1.2924061328733873,
     "adjust": 0.004472646466055571
    },
    {
     "weights": [
      -9.18930245053961,
      10.889428855616,
      4.94171392506855,
      -19.271163725885224,
      14.872390174287794,
      4.180751057691747,
      -5.122679831937235,
      5.541489248386144,
      -11.838713418479362,
      -1.8346426105134404,
      null,
      null,
      null,
      null,
      null,
      null,
      null,
      null,
      null,
      null,
      null,
      null,
      null,
      null,
      null,
      null,
      null,
      null,
      null,
      null,
      null,
      null,
      null,
      null,
      null,
      null,
      null,
      null,
      null,
      null,
      null,
      null,
      null,
      null,
      null,
      null,
      null,
      null,
      null,
      null,
      null,
      null,
      null,
      null,
      null,
      null,
      null,
      null,
      null,
      null,
      null,
      null,
      null,
      null,
      null,
      null,
      null,
      null,
      null,
      null,
      null,
      null,
      null,
      null,
      null,
      null,
      null,
      null
     ],
     "bias": -0.5807992814716697,
     "lastInputs": [
      0.4850381802767409,
      0.6622396578010147,
      0.501172468631446,
      0.4917142476314968,
      0.5561255859375002,
      0.5524660308785999,
      0.677630278856806,
      0.28601105599786114,
      0.6295710893813214,
      0.36689251657637517
     ],
     "lastOutputs": 0.014699565198479772,
     "error": -0.18929393917319165,
     "adjust": -0.002741636492977273
    },
    {
     "weights": [
      -7.089043600480334,
      27.315029876389822,
      -17.118455802962934,
      0.8391311278272204,
      -17.990262897016933,
      13.555938152839067,
      -3.261948060214391,
      9.286200144083773,
      7.253552526207605,
      -10.836752245764242,
      null,
      null,
      null,
      null,
      null,
      null,
      null,
      null,
      null,
      null,
      null,
      null,
      null,
      null,
      null,
      null,
      null,
      null,
      null,
      null,
      null,
      null,
      null,
      null,
      null,
      null,
      null,
      null,
      null,
      null,
      null,
      null,
      null,
      null,
      null,
      null,
      null,
      null,
      null,
      null,
      null,
      null,
      null,
      null,
      null,
      null,
      null,
      null,
      null,
      null,
      null,
      null,
      null,
      null,
      null,
      null,
      null,
      null,
      null,
      null,
      null,
      null,
      null,
      null,
      null,
      null,
      null,
      null
     ],
     "bias": 4.3884449152130465,
     "lastInputs": [
      0.4850381802767409,
      0.6622396578010147,
      0.501172468631446,
      0.4917142476314968,
      0.5561255859375002,
      0.5524660308785999,
      0.677630278856806,
      0.28601105599786114,
      0.6295710893813214,
      0.36689251657637517
     ],
     "lastOutputs": 0.9999167036223476,
     "error": -0.005872084449195875,
     "adjust": -4.890826216823584e-7
    }
   ]
  },
  {
   "neurons": [
    {
     "weights": [
      14.633060903438427,
      -5.3377204840992585,
      -4.486665180475542,
      -4.303670448811601,
      9.05374624887901
     ],
     "bias": -21.480242185250887,
     "lastInputs": [
      0.9949703809970611,
      0.00004209680511405158,
      0.9965272270330469,
      0.014699565198479772,
      0.9999167036223476
     ],
     "lastOutputs": 0.0885754289154409,
     "error": -0.0885754289154409,
     "adjust": -0.007150678637188383
    },
    {
     "weights": [
      -14.45012302588064,
      1.6336251160058468,
      8.840414274923754,
      -9.998142067470145,
      -6.2916416563143285
     ],
     "bias": 9.675137298944556,
     "lastInputs": [
      0.9949703809970611,
      0.00004209680511405158,
      0.9965272270330469,
      0.014699565198479772,
      0.9999167036223476
     ],
     "lastOutputs": 0.09547879813271648,
     "error": -0.09547879813271648,
     "adjust": -0.008245796988080588
    },
    {
     "weights": [
      3.045745704755554,
      -4.725925966845527,
      -14.614541620107017,
      2.8387560522961337,
      -14.106283151912447
     ],
     "bias": 5.0614374666257484,
     "lastInputs": [
      0.9949703809970611,
      0.00004209680511405158,
      0.9965272270330469,
      0.014699565198479772,
      0.9999167036223476
     ],
     "lastOutputs": 1.2065473068082874e-9,
     "error": -1.2065473068082874e-9,
     "adjust": -1.4557564018098925e-18
    },
    {
     "weights": [
      -14.756250487170352,
      -26.368251124557265,
      2.001941527955247,
      4.602250535086348,
      5.189503120087105
     ],
     "bias": 5.5457623273568295,
     "lastInputs": [
      0.9949703809970611,
      0.00004209680511405158,
      0.9965272270330469,
      0.014699565198479772,
      0.9999167036223476
     ],
     "lastOutputs": 0.15738106097491486,
     "error": -0.15738106097491486,
     "adjust": -0.020870658589628173
    },
    {
     "weights": [
      11.017240657687546,
      13.05535449836331,
      38.78432351682762,
      -5.811300859261647,
      3.2713134497474754
     ],
     "bias": -51.13320013737728,
     "lastInputs": [
      0.9949703809970611,
      0.00004209680511405158,
      0.9965272270330469,
      0.014699565198479772,
      0.9999167036223476
     ],
     "lastOutputs": 0.7876313610808288,
     "error": 0.21236863891917124,
     "adjust": 0.03552251999453644
    }
   ]
  }
 ]
}